1 1 100 1 1
1 3 100 1 1
1 6 100 1 1
1 9 100 1 1
1 0 100 2 0.166531
2 0 100 2 0.833469
1 1 100 2 1
2 2 100 2 1
1 3 100 2 0.038214
2 3 100 2 0.961786
1 4 100 2 0.847103
2 4 100 2 0.152897
1 5 100 2 0.995669
2 5 100 2 0.00433087
2 6 100 2 1
1 7 100 2 0.928311
2 7 100 2 0.0716887
1 0 100 3 0.0135506
2 0 100 3 0.76473
3 0 100 3 0.221719
1 1 100 3 0.964571
2 1 100 3 0.0354255
3 1 100 3 3.35913e-06
1 2 100 3 0.129703
2 2 100 3 0.618122
3 2 100 3 0.252175
1 3 100 3 0.0387267
2 3 100 3 0.577884
3 3 100 3 0.383389
1 4 100 3 4.93989e-06
2 4 100 3 0.000239078
3 4 100 3 0.999756
2 5 100 3 1
1 7 100 3 0.0807412
3 7 100 3 0.919259
2 8 100 3 0.997043
3 8 100 3 0.00295682
2 9 100 3 1
3 10 100 3 1
1 0 100 4 0.0279142
2 0 100 4 0.198831
3 0 100 4 0.319677
4 0 100 4 0.453577
1 1 100 4 0.920965
2 1 100 4 0.0787145
3 1 100 4 6.66397e-06
4 1 100 4 0.000314304
1 2 100 4 0.113267
2 2 100 4 0.61401
3 2 100 4 0.241081
4 2 100 4 0.0316423
1 3 100 4 0.000490333
2 3 100 4 0.321546
3 3 100 4 0.414777
4 3 100 4 0.263187
1 4 100 4 0.0001809
2 4 100 4 0.0443674
3 4 100 4 0.400559
4 4 100 4 0.554893
1 5 100 4 5.89386e-05
2 5 100 4 0.0010249
3 5 100 4 0.0409593
4 5 100 4 0.957957
2 6 100 4 0.975863
3 6 100 4 0.000205517
4 6 100 4 0.023931
1 7 100 4 8.76989e-06
2 7 100 4 1.98666e-05
3 7 100 4 0.0368985
4 7 100 4 0.963073
1 8 100 4 3.54755e-06
2 8 100 4 2.95825e-05
3 8 100 4 0.536218
4 8 100 4 0.463749
2 9 100 4 0.00805954
3 9 100 4 0.0122258
4 9 100 4 0.979715
1 0 100 5 0.00716255
2 0 100 5 0.199842
3 0 100 5 0.339956
4 0 100 5 0.139755
5 0 100 5 0.313285
1 1 100 5 0.94606
2 1 100 5 0.0538961
3 1 100 5 1.35888e-05
4 1 100 5 1.99346e-07
5 1 100 5 2.95771e-05
1 2 100 5 0.0646437
2 2 100 5 0.769541
3 2 100 5 0.148021
4 2 100 5 0.0134578
5 2 100 5 0.00433599
1 3 100 5 0.00875008
2 3 100 5 0.182466
3 3 100 5 0.578848
4 3 100 5 0.214713
5 3 100 5 0.0152232
1 4 100 5 3.02999e-06
2 4 100 5 0.00698318
3 4 100 5 0.280459
4 4 100 5 0.458968
5 4 100 5 0.253588
1 5 100 5 3.14478e-05
2 5 100 5 0.00522606
3 5 100 5 0.0153837
4 5 100 5 0.423424
5 5 100 5 0.555935
1 6 100 5 4.05442e-05
2 6 100 5 3.45867e-05
3 6 100 5 8.69817e-07
4 6 100 5 0.0191276
5 6 100 5 0.980796
1 7 100 5 7.21966e-06
2 7 100 5 0.00123899
3 7 100 5 0.000156361
4 7 100 5 6.88241e-06
5 7 100 5 0.998591
1 8 100 5 7.65144e-06
2 8 100 5 0.000766342
3 8 100 5 4.49537e-06
4 8 100 5 3.68806e-05
5 8 100 5 0.999185
1 9 100 5 0.000771552
3 9 100 5 0.03838
4 9 100 5 0.945322
5 9 100 5 0.0155263
3 10 100 5 0.0176479
5 10 100 5 0.982352
1 0 100 6 0.00815825
2 0 100 6 0.162709
3 0 100 6 0.245178
4 0 100 6 0.25307
5 0 100 6 0.245049
6 0 100 6 0.0858347
1 1 100 6 0.990945
2 1 100 6 0.00883509
3 1 100 6 0.00021364
4 1 100 6 2.67528e-06
5 1 100 6 2.30724e-06
6 1 100 6 1.34285e-06
1 2 100 6 0.0111198
2 2 100 6 0.86992
3 2 100 6 0.116654
4 2 100 6 7.59787e-06
5 2 100 6 0.00229232
6 2 100 6 6.12956e-06
2 3 100 6 0.0874313
3 3 100 6 0.705426
4 3 100 6 0.20549
5 3 100 6 0.00164782
6 3 100 6 4.57908e-06
1 4 100 6 4.11566e-07
2 4 100 6 2.83898e-05
3 4 100 6 0.165196
4 4 100 6 0.524047
5 4 100 6 0.3066
6 4 100 6 0.00412819
1 5 100 6 3.03673e-07
2 5 100 6 9.22096e-05
3 5 100 6 0.00287793
4 5 100 6 0.241408
5 5 100 6 0.435369
6 5 100 6 0.320253
1 6 100 6 3.00328e-06
2 6 100 6 3.57233e-06
3 6 100 6 0.00011183
4 6 100 6 0.00945019
5 6 100 6 0.318301
6 6 100 6 0.672131
1 7 100 6 9.39598e-07
2 7 100 6 3.67255e-06
3 7 100 6 2.2121e-05
4 7 100 6 0.00766566
5 7 100 6 0.0169086
6 7 100 6 0.975399
1 8 100 6 0.000110395
3 8 100 6 6.25076e-07
4 8 100 6 0.00500292
5 8 100 6 0.000700141
6 8 100 6 0.994186
2 9 100 6 0.0164919
3 9 100 6 0.000417001
4 9 100 6 0.545054
5 9 100 6 0.198601
6 9 100 6 0.239436
2 10 100 6 1.78719e-06
3 10 100 6 1.21137e-05
4 10 100 6 0.000183783
5 10 100 6 0.000282532
6 10 100 6 0.99952
2 11 100 6 0.966954
3 11 100 6 0.00423645
5 11 100 6 7.84553e-05
6 11 100 6 0.0287306
3 12 100 6 0.999818
6 12 100 6 0.000181605
2 13 100 6 0.99998
6 13 100 6 2.01731e-05
1 14 100 6 0.000394851
5 14 100 6 0.999605
1 0 100 7 0.015147
2 0 100 7 0.0675883
3 0 100 7 0.203695
4 0 100 7 0.24011
5 0 100 7 0.213233
6 0 100 7 0.126356
7 0 100 7 0.133871
1 1 100 7 0.991829
2 1 100 7 0.00603516
3 1 100 7 0.00209913
4 1 100 7 3.06084e-05
5 1 100 7 8.0496e-07
6 1 100 7 2.333e-06
7 1 100 7 2.66234e-06
1 2 100 7 0.00187712
2 2 100 7 0.935451
3 2 100 7 0.0604657
4 2 100 7 0.00218416
5 2 100 7 1.24079e-05
6 2 100 7 2.07909e-06
7 2 100 7 7.61585e-06
1 3 100 7 0.00224637
2 3 100 7 0.0500658
3 3 100 7 0.774656
4 3 100 7 0.167582
5 3 100 7 0.00542429
6 3 100 7 1.78835e-05
7 3 100 7 7.56554e-06
1 4 100 7 3.20222e-07
2 4 100 7 0.00234785
3 4 100 7 0.124675
4 4 100 7 0.587107
5 4 100 7 0.277389
6 4 100 7 0.00846229
7 4 100 7 1.8765e-05
1 5 100 7 1.83707e-07
2 5 100 7 2.72927e-05
3 5 100 7 0.00428087
4 5 100 7 0.207304
5 5 100 7 0.45777
6 5 100 7 0.32343
7 5 100 7 0.00718766
1 6 100 7 2.31308e-07
2 6 100 7 3.69945e-06
3 6 100 7 0.000316721
4 6 100 7 0.00835293
5 6 100 7 0.231605
6 6 100 7 0.441109
7 6 100 7 0.318613
1 7 100 7 1.08847e-06
2 7 100 7 1.26915e-06
3 7 100 7 3.96351e-05
4 7 100 7 5.38337e-05
5 7 100 7 0.0234932
6 7 100 7 0.342884
7 7 100 7 0.633527
1 8 100 7 2.27635e-05
2 8 100 7 0.000947653
3 8 100 7 7.93839e-05
4 8 100 7 0.000193571
5 8 100 7 2.65921e-05
6 8 100 7 0.0467208
7 8 100 7 0.952009
2 9 100 7 1.16525e-05
3 9 100 7 2.93646e-07
4 9 100 7 0.0760277
5 9 100 7 0.047246
6 9 100 7 0.148887
7 9 100 7 0.727827
6 10 100 7 0.00185281
7 10 100 7 0.998147
3 11 100 7 0.0146817
5 11 100 7 2.21274e-06
7 11 100 7 0.985316
1 0 100 8 0.00366466
2 0 100 8 0.0610986
3 0 100 8 0.149083
4 0 100 8 0.220526
5 0 100 8 0.243306
6 0 100 8 0.175974
7 0 100 8 0.095841
8 0 100 8 0.0505072
1 1 100 8 0.998445
2 1 100 8 0.00154531
3 1 100 8 2.13362e-06
4 1 100 8 3.23616e-06
5 1 100 8 1.20264e-06
6 1 100 8 1.7416e-06
7 1 100 8 1.01705e-06
8 1 100 8 2.08611e-07
1 2 100 8 0.00154731
2 2 100 8 0.949958
3 2 100 8 0.0484514
4 2 100 8 4.13954e-06
5 2 100 8 3.46893e-05
6 2 100 8 2.32492e-06
7 2 100 8 9.7522e-07
8 2 100 8 1.4007e-06
1 3 100 8 0.00164709
2 3 100 8 0.0238652
3 3 100 8 0.834505
4 3 100 8 0.137875
5 3 100 8 0.00203764
6 3 100 8 6.25002e-05
7 3 100 8 4.17201e-06
8 3 100 8 2.8455e-06
1 4 100 8 4.32757e-07
2 4 100 8 0.00162453
3 4 100 8 0.100924
4 4 100 8 0.638145
5 4 100 8 0.251836
6 4 100 8 0.00630338
7 4 100 8 0.00116025
8 4 100 8 6.28728e-06
2 5 100 8 1.20393e-06
3 5 100 8 0.004868
4 5 100 8 0.166559
5 5 100 8 0.501496
6 5 100 8 0.320952
7 5 100 8 0.00505171
8 5 100 8 0.00107142
2 6 100 8 7.83784e-07
3 6 100 8 6.59852e-05
4 6 100 8 0.0070056
5 6 100 8 0.172445
6 6 100 8 0.441565
7 6 100 8 0.371846
8 6 100 8 0.00707215
1 7 100 8 2.13852e-07
2 7 100 8 2.89421e-05
3 7 100 8 3.23813e-05
4 7 100 8 0.00010768
5 7 100 8 0.0104524
6 7 100 8 0.189797
7 7 100 8 0.39969
8 7 100 8 0.399892
1 8 100 8 1.30145e-06
2 8 100 8 2.77356e-05
3 8 100 8 4.6358e-05
4 8 100 8 1.47047e-06
5 8 100 8 0.000980359
6 8 100 8 0.0179011
7 8 100 8 0.358787
8 8 100 8 0.622255
2 9 100 8 6.27003e-07
3 9 100 8 3.02682e-05
5 9 100 8 1.30557e-05
6 9 100 8 0.00443774
7 9 100 8 0.0480948
8 9 100 8 0.947423
1 10 100 8 2.27728e-05
2 10 100 8 1.9714e-05
3 10 100 8 2.23198e-07
4 10 100 8 2.48756e-07
5 10 100 8 2.21866e-05
6 10 100 8 2.87712e-05
7 10 100 8 0.107645
8 10 100 8 0.892261
2 11 100 8 8.1329e-05
4 11 100 8 2.95449e-05
5 11 100 8 0.000344162
7 11 100 8 0.066786
8 11 100 8 0.932759
4 12 100 8 1
1 0 100 9 0.00650696
2 0 100 9 0.0596808
3 0 100 9 0.141182
4 0 100 9 0.147616
5 0 100 9 0.211243
6 0 100 9 0.191797
7 0 100 9 0.143229
8 0 100 9 0.0608542
9 0 100 9 0.0378915
1 1 100 9 0.996081
2 1 100 9 0.00391164
3 1 100 9 8.04748e-07
4 1 100 9 1.16806e-06
5 1 100 9 2.45315e-06
6 1 100 9 9.47889e-07
7 1 100 9 1.36671e-06
8 1 100 9 6.98718e-07
9 1 100 9 2.71466e-07
1 2 100 9 0.00463388
2 2 100 9 0.953634
3 2 100 9 0.040692
4 2 100 9 0.00101519
5 2 100 9 2.0212e-05
6 2 100 9 2.42893e-06
7 2 100 9 7.27757e-07
8 2 100 9 1.52151e-06
9 2 100 9 4.51536e-07
1 3 100 9 0.00143076
2 3 100 9 0.0234742
3 3 100 9 0.845116
4 3 100 9 0.128534
5 3 100 9 0.00143803
6 3 100 9 2.35885e-06
7 3 100 9 2.3077e-06
8 3 100 9 1.92388e-06
9 3 100 9 8.08586e-07
1 4 100 9 4.98813e-07
2 4 100 9 0.00146545
3 4 100 9 0.0720133
4 4 100 9 0.717874
5 4 100 9 0.20181
6 4 100 9 0.00616204
7 4 100 9 0.000673226
8 4 100 9 1.15521e-06
9 4 100 9 1.32434e-06
2 5 100 9 6.38538e-05
3 5 100 9 0.00267416
4 5 100 9 0.12361
5 5 100 9 0.598127
6 5 100 9 0.268205
7 5 100 9 0.00626148
8 5 100 9 0.00105081
9 5 100 9 7.0937e-06
2 6 100 9 0.000187195
3 6 100 9 0.000329635
4 6 100 9 0.00148981
5 6 100 9 0.134188
6 6 100 9 0.519519
7 6 100 9 0.333099
8 6 100 9 0.0102352
9 6 100 9 0.000952244
2 7 100 9 1.1425e-07
3 7 100 9 1.80627e-06
4 7 100 9 0.00134143
5 7 100 9 0.0038295
6 7 100 9 0.14916
7 7 100 9 0.445497
8 7 100 9 0.38654
9 7 100 9 0.0136293
1 8 100 9 4.04154e-07
2 8 100 9 2.48309e-05
3 8 100 9 7.68218e-05
4 8 100 9 0.000124747
5 8 100 9 0.00158702
6 8 100 9 0.0066291
7 8 100 9 0.176136
8 8 100 9 0.408016
9 8 100 9 0.407405
1 9 100 9 1.91203e-05
2 9 100 9 2.18653e-07
3 9 100 9 5.98264e-05
4 9 100 9 1.34334e-06
5 9 100 9 2.1193e-05
6 9 100 9 0.00246991
7 9 100 9 0.014469
8 9 100 9 0.334426
9 9 100 9 0.648533
1 10 100 9 4.33854e-06
2 10 100 9 4.92448e-07
4 10 100 9 1.22495e-05
5 10 100 9 0.00654644
6 10 100 9 8.93962e-07
7 10 100 9 0.00658483
8 10 100 9 0.0340256
9 10 100 9 0.952825
2 11 100 9 0.000553157
4 11 100 9 5.52752e-07
5 11 100 9 1.24444e-06
7 11 100 9 0.00413913
8 11 100 9 0.162319
9 11 100 9 0.832987
2 12 100 9 6.05729e-05
4 12 100 9 0.000727139
6 12 100 9 0.0053418
8 12 100 9 0.0128415
9 12 100 9 0.981029
9 13 100 9 1
1 0 100 10 0.000382738
2 0 100 10 0.0384932
3 0 100 10 0.124838
4 0 100 10 0.104593
5 0 100 10 0.175898
6 0 100 10 0.204495
7 0 100 10 0.163657
8 0 100 10 0.114177
9 0 100 10 0.0431682
10 0 100 10 0.0302974
1 1 100 10 0.999994
3 1 100 10 1.08917e-07
4 1 100 10 1.56213e-06
5 1 100 10 1.5589e-06
6 1 100 10 4.70458e-07
7 1 100 10 1.85406e-06
10 1 100 10 3.28349e-07
1 2 100 10 0.000709797
2 2 100 10 0.956692
3 2 100 10 0.0425896
4 2 100 10 1.73599e-06
5 2 100 10 1.15722e-06
6 2 100 10 2.22473e-06
7 2 100 10 1.299e-06
8 2 100 10 1.38512e-06
9 2 100 10 2.88379e-07
10 2 100 10 2.82627e-07
1 3 100 10 0.000730917
2 3 100 10 0.0166593
3 3 100 10 0.860696
4 3 100 10 0.11991
5 3 100 10 0.00199574
6 3 100 10 2.88803e-06
7 3 100 10 1.93324e-06
8 3 100 10 1.48778e-06
9 3 100 10 6.08992e-07
10 3 100 10 8.14344e-07
2 4 100 10 0.00148607
3 4 100 10 0.0420015
4 4 100 10 0.779061
5 4 100 10 0.170055
6 4 100 10 0.00738987
7 4 100 10 1.70725e-06
8 4 100 10 3.50525e-06
9 4 100 10 6.15038e-07
10 4 100 10 1.36184e-06
2 5 100 10 5.30272e-07
3 5 100 10 0.0027294
4 5 100 10 0.0735571
5 5 100 10 0.668165
6 5 100 10 0.239809
7 5 100 10 0.0157288
8 5 100 10 5.03574e-06
9 5 100 10 4.18803e-06
10 5 100 10 5.50202e-07
2 6 100 10 2.32709e-07
3 6 100 10 1.66413e-06
4 6 100 10 0.00468782
5 6 100 10 0.0889197
6 6 100 10 0.56511
7 6 100 10 0.313283
8 6 100 10 0.027996
9 6 100 10 8.63072e-07
10 6 100 10 4.30928e-07
2 7 100 10 1.03854e-06
3 7 100 10 1.05124e-06
4 7 100 10 5.21816e-06
5 7 100 10 0.00736305
6 7 100 10 0.094982
7 7 100 10 0.477585
8 7 100 10 0.384343
9 7 100 10 0.0357173
10 7 100 10 2.42134e-06
2 8 100 10 4.37402e-07
3 8 100 10 2.87145e-06
4 8 100 10 2.04701e-05
5 8 100 10 1.58912e-05
6 8 100 10 0.0114913
7 8 100 10 0.130569
8 8 100 10 0.398952
9 8 100 10 0.420567
10 8 100 10 0.0383802
2 9 100 10 4.46653e-07
3 9 100 10 3.69153e-05
4 9 100 10 0.000119385
5 9 100 10 8.71382e-05
6 9 100 10 0.0016163
7 9 100 10 0.0176157
8 9 100 10 0.156132
9 9 100 10 0.383373
10 9 100 10 0.44102
2 10 100 10 3.15949e-05
4 10 100 10 4.08472e-07
5 10 100 10 4.65003e-05
6 10 100 10 1.07874e-06
7 10 100 10 0.000893108
8 10 100 10 0.0342527
9 10 100 10 0.296502
10 10 100 10 0.668272
1 11 100 10 0.00782785
2 11 100 10 5.0787e-06
3 11 100 10 5.6416e-05
5 11 100 10 4.01482e-05
7 11 100 10 1.73617e-07
8 11 100 10 2.64243e-05
9 11 100 10 0.123129
10 11 100 10 0.868915
2 12 100 10 0.0156383
3 12 100 10 1.62734e-06
4 12 100 10 3.65481e-06
5 12 100 10 1.31369e-06
6 12 100 10 1.69897e-05
7 12 100 10 3.47167e-05
8 12 100 10 0.0194656
9 12 100 10 0.000528449
10 12 100 10 0.964309
6 13 100 10 1.7167e-05
9 13 100 10 0.999983
2 14 100 10 0.437693
7 14 100 10 0.00527072
8 14 100 10 3.39576e-05
10 14 100 10 0.557003
1 15 100 10 0.0080885
3 15 100 10 0.989114
10 15 100 10 0.00279729
2 16 100 10 0.999886
3 16 100 10 0.000113711
1 0 100 11 0.000398079
2 0 100 11 0.0392227
3 0 100 11 0.0944481
4 0 100 11 0.0993167
5 0 100 11 0.154501
6 0 100 11 0.160329
7 0 100 11 0.188578
8 0 100 11 0.147796
9 0 100 11 0.0929236
10 0 100 11 0.0148354
11 0 100 11 0.00765148
1 1 100 11 0.999988
2 1 100 11 2.23091e-06
3 1 100 11 4.1603e-06
4 1 100 11 2.76205e-07
5 1 100 11 1.23873e-06
6 1 100 11 1.53723e-06
7 1 100 11 1.23093e-06
8 1 100 11 8.89378e-07
9 1 100 11 2.19055e-07
2 2 100 11 0.96315
3 2 100 11 0.0348579
4 2 100 11 0.00198285
5 2 100 11 3.16154e-06
6 2 100 11 1.63177e-06
7 2 100 11 2.51596e-06
8 2 100 11 5.38448e-07
9 2 100 11 1.42456e-06
11 2 100 11 1.03189e-07
2 3 100 11 0.00324735
3 3 100 11 0.885906
4 3 100 11 0.106658
5 3 100 11 0.00418223
6 3 100 11 1.69088e-06
7 3 100 11 1.00949e-06
8 3 100 11 3.07865e-06
9 3 100 11 6.2925e-07
10 3 100 11 3.24882e-07
11 3 100 11 2.98589e-07
2 4 100 11 0.00116487
3 4 100 11 0.0356279
4 4 100 11 0.795983
5 4 100 11 0.162919
6 4 100 11 0.00427892
7 4 100 11 1.42533e-05
8 4 100 11 9.52355e-07
9 4 100 11 1.00297e-05
10 4 100 11 3.94876e-07
11 4 100 11 2.09475e-07
2 5 100 11 3.61326e-07
3 5 100 11 0.00368588
4 5 100 11 0.0746954
5 5 100 11 0.677204
6 5 100 11 0.238112
7 5 100 11 0.00629519
8 5 100 11 5.19191e-06
9 5 100 11 1.66179e-06
2 6 100 11 5.32629e-06
3 6 100 11 0.000662684
4 6 100 11 0.0020077
5 6 100 11 0.0832871
6 6 100 11 0.585895
7 6 100 11 0.305306
8 6 100 11 0.0228341
9 6 100 11 1.19683e-06
11 6 100 11 3.32657e-07
2 7 100 11 1.96385e-07
3 7 100 11 2.10187e-07
4 7 100 11 0.00136402
5 7 100 11 0.000510501
6 7 100 11 0.0937918
7 7 100 11 0.48344
8 7 100 11 0.389492
9 7 100 11 0.0293727
10 7 100 11 0.00202699
11 7 100 11 1.58673e-06
2 8 100 11 9.15939e-07
3 8 100 11 7.39461e-07
4 8 100 11 1.75662e-05
5 8 100 11 0.00206827
6 8 100 11 0.00481145
7 8 100 11 0.122491
8 8 100 11 0.388466
9 8 100 11 0.438358
10 8 100 11 0.0417463
11 8 100 11 0.00203961
3 9 100 11 6.17016e-07
4 9 100 11 6.15125e-07
5 9 100 11 1.18968e-06
6 9 100 11 0.00203143
7 9 100 11 0.00173495
8 9 100 11 0.142098
9 9 100 11 0.352055
10 9 100 11 0.46207
11 9 100 11 0.0400083
3 10 100 11 0.000138514
4 10 100 11 5.19564e-05
5 10 100 11 7.86851e-05
6 10 100 11 9.29721e-05
7 10 100 11 0.00208567
8 10 100 11 0.00419395
9 10 100 11 0.156138
10 10 100 11 0.353629
11 10 100 11 0.483591
2 11 100 11 4.19333e-05
5 11 100 11 1.90059e-05
6 11 100 11 1.19347e-07
7 11 100 11 3.38253e-06
8 11 100 11 0.0039698
9 11 100 11 0.00993971
10 11 100 11 0.321104
11 11 100 11 0.664922
2 12 100 11 9.15468e-07
4 12 100 11 3.51284e-06
5 12 100 11 6.91041e-05
6 12 100 11 1.63463e-06
7 12 100 11 1.39637e-05
9 12 100 11 0.0115322
10 12 100 11 0.0345636
11 12 100 11 0.953815
8 13 100 11 2.5611e-05
9 13 100 11 4.56703e-06
10 13 100 11 0.200907
11 13 100 11 0.799063
9 14 100 11 1.14686e-05
11 14 100 11 0.999988
1 0 100 12 0.00531341
2 0 100 12 0.0638144
3 0 100 12 0.0897343
4 0 100 12 0.0655769
5 0 100 12 0.144671
6 0 100 12 0.121534
7 0 100 12 0.167462
8 0 100 12 0.116505
9 0 100 12 0.102117
10 0 100 12 0.0891725
11 0 100 12 0.0252257
12 0 100 12 0.00887429
1 1 100 12 0.996344
2 1 100 12 0.00067609
4 1 100 12 0.00297581
5 1 100 12 5.66868e-07
6 1 100 12 2.29929e-07
7 1 100 12 1.55703e-06
8 1 100 12 1.11075e-06
9 1 100 12 7.08733e-07
1 2 100 12 0.00590362
2 2 100 12 0.951534
3 2 100 12 0.0366719
4 2 100 12 0.00292899
5 2 100 12 0.00295573
6 2 100 12 4.07726e-07
7 2 100 12 1.36581e-06
8 2 100 12 1.56169e-06
9 2 100 12 4.773e-07
10 2 100 12 1.90709e-06
2 3 100 12 0.00617303
3 3 100 12 0.878442
4 3 100 12 0.109433
5 3 100 12 0.00297554
6 3 100 12 0.00297326
8 3 100 12 8.31849e-07
9 3 100 12 8.80604e-07
10 3 100 12 9.5193e-07
1 4 100 12 3.8275e-07
2 4 100 12 1.47656e-05
3 4 100 12 0.033413
4 4 100 12 0.807261
5 4 100 12 0.150243
6 4 100 12 0.00597212
7 4 100 12 0.00309116
8 4 100 12 2.39682e-06
9 4 100 12 9.70703e-07
10 4 100 12 1.21184e-06
2 5 100 12 8.35527e-07
3 5 100 12 0.00129804
4 5 100 12 0.0685115
5 5 100 12 0.687444
6 5 100 12 0.231707
7 5 100 12 0.00803245
8 5 100 12 0.00300259
9 5 100 12 1.30311e-06
10 5 100 12 1.62296e-06
12 5 100 12 1.49248e-07
2 6 100 12 5.92783e-06
3 6 100 12 3.79243e-06
4 6 100 12 0.00305498
5 6 100 12 0.0845076
6 6 100 12 0.603864
7 6 100 12 0.283848
8 6 100 12 0.021664
9 6 100 12 0.00304935
10 6 100 12 1.73245e-06
12 6 100 12 4.3338e-07
1 7 100 12 2.01556e-07
2 7 100 12 1.06502e-07
4 7 100 12 1.26399e-06
5 7 100 12 0.000319655
6 7 100 12 0.099704
7 7 100 12 0.510512
8 7 100 12 0.364725
9 7 100 12 0.0216953
10 7 100 12 0.00304095
12 7 100 12 1.03041e-06
1 8 100 12 3.74688e-07
2 8 100 12 7.31083e-07
3 8 100 12 3.49461e-07
5 8 100 12 2.00588e-06
6 8 100 12 0.00458027
7 8 100 12 0.109131
8 8 100 12 0.438606
9 8 100 12 0.413705
10 8 100 12 0.0250305
11 8 100 12 0.00894309
12 8 100 12 7.16821e-07
2 9 100 12 4.78913e-07
4 9 100 12 1.7289e-06
6 9 100 12 8.78673e-07
7 9 100 12 0.00606459
8 9 100 12 0.113373
9 9 100 12 0.380052
10 9 100 12 0.444971
11 9 100 12 0.0464329
12 9 100 12 0.00910296
2 10 100 12 5.26329e-07
3 10 100 12 2.57956e-07
4 10 100 12 3.07392e-07
5 10 100 12 8.77884e-07
6 10 100 12 3.69053e-07
8 10 100 12 0.00755114
9 10 100 12 0.131056
10 10 100 12 0.345183
11 10 100 12 0.465533
12 10 100 12 0.0506745
3 11 100 12 5.9994e-05
4 11 100 12 1.64086e-07
5 11 100 12 2.3818e-05
6 11 100 12 1.53651e-06
7 11 100 12 4.54677e-05
8 11 100 12 8.66414e-05
9 11 100 12 0.00643046
10 11 100 12 0.143412
11 11 100 12 0.347725
12 11 100 12 0.502214
1 12 100 12 1.63206e-07
4 12 100 12 1.06526e-07
5 12 100 12 7.33024e-05
6 12 100 12 7.79233e-07
7 12 100 12 5.07904e-05
10 12 100 12 0.0191364
11 12 100 12 0.292293
12 12 100 12 0.688445
7 13 100 12 2.9279e-07
11 13 100 12 0.0693635
12 13 100 12 0.930636
2 14 100 12 5.88487e-06
3 14 100 12 8.72883e-06
5 14 100 12 6.85937e-07
8 14 100 12 2.9365e-05
11 14 100 12 0.185929
12 14 100 12 0.814026
11 15 100 12 2.09076e-05
12 15 100 12 0.999979
1 0 100 13 0.000185809
2 0 100 13 0.0195722
3 0 100 13 0.0222189
4 0 100 13 0.0582183
5 0 100 13 0.0958958
6 0 100 13 0.135353
7 0 100 13 0.190787
8 0 100 13 0.177595
9 0 100 13 0.104591
10 0 100 13 0.0830098
11 0 100 13 0.0667567
12 0 100 13 0.0265729
13 0 100 13 0.0192421
1 1 100 13 0.999992
2 1 100 13 5.27792e-06
6 1 100 13 1.3023e-06
8 1 100 13 5.18495e-07
9 1 100 13 3.44823e-07
10 1 100 13 6.26202e-07
2 2 100 13 0.980457
3 2 100 13 0.0195374
5 2 100 13 1.41177e-06
6 2 100 13 5.35432e-07
7 2 100 13 2.70376e-06
10 2 100 13 6.52291e-07
11 2 100 13 5.50215e-07
2 3 100 13 0.00440246
3 3 100 13 0.948759
4 3 100 13 0.0418391
5 3 100 13 0.00499548
6 3 100 13 1.58485e-06
8 3 100 13 1.23612e-06
10 3 100 13 3.1253e-07
11 3 100 13 2.89402e-07
3 4 100 13 0.0026539
4 4 100 13 0.915306
5 4 100 13 0.0769233
6 4 100 13 0.00511229
7 4 100 13 1.32495e-06
9 4 100 13 1.70036e-06
10 4 100 13 5.64329e-07
12 4 100 13 2.34892e-07
13 4 100 13 1.71002e-07
2 5 100 13 7.61929e-07
3 5 100 13 1.83961e-06
4 5 100 13 0.0103771
5 5 100 13 0.805533
6 5 100 13 0.173115
7 5 100 13 0.00806758
8 5 100 13 0.0029031
9 5 100 13 1.43742e-07
10 5 100 13 5.93299e-07
11 5 100 13 5.60342e-07
4 6 100 13 1.27573e-07
5 6 100 13 0.0658567
6 6 100 13 0.679063
7 6 100 13 0.226508
8 6 100 13 0.0233551
9 6 100 13 0.00521401
10 6 100 13 1.53675e-06
11 6 100 13 6.6378e-07
13 6 100 13 1.21924e-07
4 7 100 13 8.32765e-07
5 7 100 13 2.41153e-05
6 7 100 13 0.0704055
7 7 100 13 0.582145
8 7 100 13 0.295291
9 7 100 13 0.0468997
10 7 100 13 0.00523322
12 7 100 13 6.08945e-07
2 8 100 13 1.82377e-07
4 8 100 13 1.74546e-06
5 8 100 13 4.68889e-07
6 8 100 13 0.00689941
7 8 100 13 0.0785404
8 8 100 13 0.503837
9 8 100 13 0.352594
10 8 100 13 0.0529439
11 8 100 13 0.00518321
3 9 100 13 9.32167e-07
4 9 100 13 9.37267e-07
5 9 100 13 7.62162e-07
6 9 100 13 2.29634e-07
7 9 100 13 0.00532856
8 9 100 13 0.0822427
9 9 100 13 0.444883
10 9 100 13 0.395188
11 9 100 13 0.0670147
12 9 100 13 0.00533923
13 9 100 13 5.29601e-07
5 10 100 13 1.12059e-06
6 10 100 13 1.1532e-06
7 10 100 13 6.92105e-07
8 10 100 13 5.75401e-07
9 10 100 13 0.11361
10 10 100 13 0.398529
11 10 100 13 0.410572
12 10 100 13 0.0721301
13 10 100 13 0.00515554
4 11 100 13 5.03716e-07
7 11 100 13 2.33867e-06
8 11 100 13 1.89219e-07
9 11 100 13 3.76659e-06
10 11 100 13 0.119987
11 11 100 13 0.357943
12 11 100 13 0.450988
13 11 100 13 0.0710755
4 12 100 13 0.000108944
5 12 100 13 5.52508e-05
6 12 100 13 7.85767e-07
8 12 100 13 3.10133e-05
9 12 100 13 0.000124073
10 12 100 13 5.69649e-05
11 12 100 13 0.136965
12 12 100 13 0.364803
13 12 100 13 0.497855
6 13 100 13 5.58712e-06
11 13 100 13 4.07279e-07
12 13 100 13 0.270114
13 13 100 13 0.72988
12 14 100 13 2.50733e-05
13 14 100 13 0.999975
1 0 100 14 6.61646e-05
2 0 100 14 0.0272612
3 0 100 14 0.0300014
4 0 100 14 0.0640828
5 0 100 14 0.230885
6 0 100 14 0.141519
7 0 100 14 0.0491418
8 0 100 14 0.0636286
9 0 100 14 0.145916
10 0 100 14 0.100741
11 0 100 14 0.0512308
12 0 100 14 0.0564117
13 0 100 14 0.0181694
14 0 100 14 0.0209452
1 1 100 14 0.999874
3 1 100 14 5.04259e-07
4 1 100 14 5.13453e-06
6 1 100 14 0.00011878
9 1 100 14 1.36752e-06
1 2 100 14 0.0143264
2 2 100 14 0.972864
3 2 100 14 0.012806
5 2 100 14 1.13455e-06
7 2 100 14 1.25345e-06
12 2 100 14 1.31713e-06
1 3 100 14 4.90378e-07
2 3 100 14 0.00751847
3 3 100 14 0.949537
4 3 100 14 0.0343151
5 3 100 14 0.00862614
6 3 100 14 8.03615e-07
9 3 100 14 2.25617e-06
3 4 100 14 0.000105409
4 4 100 14 0.91216
5 4 100 14 0.0584766
6 4 100 14 0.0292512
8 4 100 14 2.86277e-06
9 4 100 14 1.33484e-06
11 4 100 14 1.28201e-06
12 4 100 14 1.03866e-06
3 5 100 14 5.10533e-05
4 5 100 14 0.0142619
5 5 100 14 0.686971
6 5 100 14 0.269557
7 5 100 14 0.029154
9 5 100 14 1.34473e-06
10 5 100 14 1.30211e-06
12 5 100 14 1.26848e-06
14 5 100 14 1.51084e-06
4 6 100 14 0.00762909
5 6 100 14 0.044635
6 6 100 14 0.542443
7 6 100 14 0.360705
8 6 100 14 0.0445848
10 6 100 14 3.33831e-06
11 6 100 14 3.54608e-07
5 7 100 14 0.0143116
6 7 100 14 0.0502639
7 7 100 14 0.516695
8 7 100 14 0.373939
9 7 100 14 0.0447895
5 8 100 14 1.52894e-06
6 8 100 14 0.0143874
7 8 100 14 0.0575642
8 8 100 14 0.466612
9 8 100 14 0.403842
10 8 100 14 0.0575913
12 8 100 14 1.30805e-06
4 9 100 14 1.36181e-06
7 9 100 14 0.0146583
8 9 100 14 0.0579299
9 9 100 14 0.369236
10 9 100 14 0.495629
11 9 100 14 0.062543
12 9 100 14 7.78773e-07
14 9 100 14 1.86568e-06
4 10 100 14 1.37357e-06
5 10 100 14 1.33438e-06
7 10 100 14 1.52206e-06
8 10 100 14 0.0142885
9 10 100 14 0.0571777
10 10 100 14 0.286486
11 10 100 14 0.543292
12 10 100 14 0.0845154
13 10 100 14 0.0142362
14 10 100 14 1.45891e-07
3 11 100 14 6.72128e-07
4 11 100 14 1.5081e-06
6 11 100 14 4.03271e-06
9 11 100 14 0.01454
10 11 100 14 0.0726983
11 11 100 14 0.25873
12 11 100 14 0.552171
13 11 100 14 0.0873059
14 11 100 14 0.0145482
6 12 100 14 1.34363e-06
10 12 100 14 0.0145965
11 12 100 14 0.0871682
12 12 100 14 0.241888
13 12 100 14 0.568859
14 12 100 14 0.0874865
3 13 100 14 4.49585e-07
5 13 100 14 0.000105853
6 13 100 14 2.22333e-06
11 13 100 14 0.0163231
12 13 100 14 0.0816444
13 13 100 14 0.266474
14 13 100 14 0.63545
7 14 100 14 0.000444965
12 14 100 14 0.0593013
13 14 100 14 0.224245
14 14 100 14 0.716008
13 15 100 14 0.167897
14 15 100 14 0.832103
4 16 100 14 3.867e-06
10 16 100 14 2.51503e-06
12 16 100 14 4.54182e-06
13 16 100 14 0.00299696
14 16 100 14 0.996992
4 17 100 14 9.9124e-05
8 17 100 14 0.00010295
11 17 100 14 0.999785
12 17 100 14 1.32494e-05
3 18 100 14 1.31757e-05
13 18 100 14 0.999987
14 19 100 14 1
1 0 100 15 0.000184411
2 0 100 15 0.0242615
3 0 100 15 0.0927252
4 0 100 15 0.0385373
5 0 100 15 0.127032
6 0 100 15 0.104911
7 0 100 15 0.148322
8 0 100 15 0.0909075
9 0 100 15 0.129598
10 0 100 15 0.0463752
11 0 100 15 0.162687
12 0 100 15 0.00424097
13 0 100 15 0.0267206
14 0 100 15 0.000954445
15 0 100 15 0.00254331
1 1 100 15 0.999995
6 1 100 15 1.59293e-06
11 1 100 15 3.42446e-06
2 2 100 15 0.978175
3 2 100 15 0.0218199
7 2 100 15 3.09874e-06
13 2 100 15 1.67522e-06
2 3 100 15 1.32405e-05
3 3 100 15 0.895884
4 3 100 15 0.104098
5 3 100 15 4.67444e-06
2 4 100 15 8.64221e-06
3 4 100 15 0.0126926
4 4 100 15 0.847737
5 4 100 15 0.128723
9 4 100 15 0.0108348
11 4 100 15 4.2037e-06
4 5 100 15 0.063702
5 5 100 15 0.665478
6 5 100 15 0.245316
7 5 100 15 3.43408e-07
8 5 100 15 2.78693e-06
10 5 100 15 0.0255006
5 6 100 15 0.136397
6 6 100 15 0.593681
7 6 100 15 0.215417
8 6 100 15 0.0305105
11 6 100 15 0.0239949
4 7 100 15 2.25359e-06
5 7 100 15 0.000243358
6 7 100 15 0.0762437
7 7 100 15 0.577489
8 7 100 15 0.278672
9 7 100 15 0.0419336
12 7 100 15 0.0254159
7 8 100 15 0.0975248
8 8 100 15 0.525368
9 8 100 15 0.292434
10 8 100 15 0.0602557
11 8 100 15 1.96773e-06
13 8 100 15 0.0244157
4 9 100 15 3.0343e-07
6 9 100 15 4.02593e-06
7 9 100 15 3.19311e-06
8 9 100 15 0.100816
9 9 100 15 0.437178
10 9 100 15 0.35324
11 9 100 15 0.0835182
14 9 100 15 0.0252405
5 10 100 15 2.04176e-06
6 10 100 15 7.93747e-06
9 10 100 15 0.122219
10 10 100 15 0.413575
11 10 100 15 0.342378
12 10 100 15 0.0973539
15 10 100 15 0.0244637
3 11 100 15 2.04824e-06
10 11 100 15 0.125262
11 11 100 15 0.297707
12 11 100 15 0.476635
13 11 100 15 0.100394
9 12 100 15 4.26668e-06
11 12 100 15 0.125044
12 12 100 15 0.297533
13 12 100 15 0.477231
14 12 100 15 0.100183
15 12 100 15 5.03112e-06
6 13 100 15 1.84973e-06
8 13 100 15 1.99458e-06
12 13 100 15 0.12497
13 13 100 15 0.274886
14 13 100 15 0.500105
15 13 100 15 0.100035
2 14 100 15 5.58079e-06
6 14 100 15 0.000232271
11 14 100 15 0.000609919
13 14 100 15 0.138717
14 14 100 15 0.305678
15 14 100 15 0.554757
13 15 100 15 0.000292515
14 15 100 15 0.312429
15 15 100 15 0.687279
15 16 100 15 1
1 0 100 16 0.0003768
2 0 100 16 0.000979467
3 0 100 16 0.000409387
4 0 100 16 0.00121619
5 0 100 16 0.108823
6 0 100 16 0.113193
7 0 100 16 0.163953
8 0 100 16 0.00138334
9 0 100 16 0.000778579
10 0 100 16 0.172696
11 0 100 16 0.0020025
12 0 100 16 0.0848738
13 0 100 16 0.258364
14 0 100 16 0.0867642
15 0 100 16 0.00159628
16 0 100 16 0.00258994
1 1 100 16 1
2 2 100 16 0.999983
7 2 100 16 5.1868e-06
10 2 100 16 5.90731e-06
13 2 100 16 5.68326e-06
3 3 100 16 0.999971
4 3 100 16 2.28164e-05
7 3 100 16 6.20753e-06
3 4 100 16 2.2829e-05
4 4 100 16 0.999738
5 4 100 16 0.000232333
13 4 100 16 6.52502e-06
5 5 100 16 0.855814
6 5 100 16 0.144186
5 6 100 16 0.062932
6 6 100 16 0.766911
7 6 100 16 0.170151
12 6 100 16 6.35054e-06
5 7 100 16 7.34222e-06
7 7 100 16 0.669245
8 7 100 16 0.33074
10 7 100 16 7.22686e-06
8 8 100 16 0.666445
9 8 100 16 0.333513
10 8 100 16 1.74412e-05
12 8 100 16 6.36244e-06
13 8 100 16 1.1373e-05
14 8 100 16 6.63844e-06
7 9 100 16 5.30413e-06
8 9 100 16 4.68488e-06
9 9 100 16 0.657381
10 9 100 16 0.342604
13 9 100 16 5.80867e-06
2 10 100 16 2.37923e-06
10 10 100 16 0.469833
11 10 100 16 0.530158
14 10 100 16 7.09839e-06
10 11 100 16 0.00165286
11 11 100 16 0.452386
12 11 100 16 0.545949
13 11 100 16 1.21732e-05
9 12 100 16 0.0284463
12 12 100 16 0.353833
13 12 100 16 0.530036
14 12 100 16 0.0876843
10 13 100 16 0.0566039
13 13 100 16 0.171675
14 13 100 16 0.685892
15 13 100 16 0.0858285
11 14 100 16 0.0833904
12 14 100 16 4.94828e-05
14 14 100 16 0.0842552
15 14 100 16 0.749219
16 14 100 16 0.0830861
7 15 100 16 0.000749528
12 15 100 16 0.0910094
15 15 100 16 0.0910101
16 15 100 16 0.817231
13 16 100 16 0.500054
16 16 100 16 0.499946
14 17 100 16 1
8 18 100 16 6.58278e-06
15 18 100 16 0.999993
16 19 100 16 1
1 0 100 17 0.000895204
2 0 100 17 7.62112e-05
3 0 100 17 0.000493337
4 0 100 17 0.0541373
5 0 100 17 0.178409
6 0 100 17 0.124928
7 0 100 17 0.000739839
8 0 100 17 0.000416316
9 0 100 17 0.09166
10 0 100 17 0.00283126
11 0 100 17 0.357386
12 0 100 17 0.000956442
13 0 100 17 0.180115
14 0 100 17 0.0022238
15 0 100 17 0.000638548
16 0 100 17 0.000885287
17 0 100 17 0.00320791
1 1 100 17 0.999975
5 1 100 17 6.70754e-06
11 1 100 17 1.78715e-05
2 2 100 17 0.999482
3 2 100 17 0.000518014
2 3 100 17 0.000518215
3 3 100 17 0.999482
4 4 100 17 0.949875
6 4 100 17 0.0501136
13 4 100 17 1.14716e-05
5 5 100 17 0.833563
7 5 100 17 0.166437
6 6 100 17 0.833413
8 6 100 17 0.166587
5 7 100 17 7.28725e-06
7 7 100 17 0.833363
9 7 100 17 0.16663
8 8 100 17 0.83327
9 8 100 17 8.7062e-06
10 8 100 17 0.166711
13 8 100 17 9.96946e-06
8 9 100 17 8.06883e-06
9 9 100 17 0.693314
10 9 100 17 0.152114
11 9 100 17 0.154554
13 9 100 17 9.21185e-06
10 10 100 17 0.666751
11 10 100 17 0.166595
12 10 100 17 0.166654
11 11 100 17 0.333156
12 11 100 17 0.500094
13 11 100 17 0.16675
5 12 100 17 7.05222e-06
11 12 100 17 6.11803e-05
12 12 100 17 0.333297
13 12 100 17 0.500131
14 12 100 17 0.166503
13 13 100 17 0.166247
14 13 100 17 0.666766
15 13 100 17 0.166987
11 14 100 17 2.17713e-05
14 14 100 17 0.166444
15 14 100 17 0.667074
16 14 100 17 0.166461
6 15 100 17 2.0248e-06
15 15 100 17 0.166592
16 15 100 17 0.666688
17 15 100 17 0.166717
16 16 100 17 0.200409
17 16 100 17 0.799591
17 17 100 17 1
1 0 100 18 9.53687e-06
2 0 100 18 0.00198922
3 0 100 18 0.000129053
4 0 100 18 0.000141379
5 0 100 18 0.000100116
6 0 100 18 1.75257e-05
7 0 100 18 0.000156965
8 0 100 18 2.71696e-05
9 0 100 18 3.84426e-05
10 0 100 18 0.148602
11 0 100 18 0.198659
12 0 100 18 0.246625
13 0 100 18 0.198544
14 0 100 18 0.197822
15 0 100 18 0.00424395
16 0 100 18 0.000946188
17 0 100 18 0.00075118
18 0 100 18 0.00119719
1 1 100 18 1
2 2 100 18 1
3 3 100 18 0.99998
12 3 100 18 1.95678e-05
4 4 100 18 1
5 5 100 18 1
6 6 100 18 0.999978
13 6 100 18 2.18698e-05
7 7 100 18 0.858307
10 7 100 18 0.139451
12 7 100 18 0.00224143
7 8 100 18 0.499979
8 8 100 18 0.499998
14 8 100 18 2.29807e-05
8 9 100 18 0.499959
9 9 100 18 0.500019
11 9 100 18 2.23892e-05
3 10 100 18 1.2576e-05
10 10 100 18 0.972058
12 10 100 18 0.02793
9 11 100 18 0.500089
11 11 100 18 0.499911
10 12 100 18 0.010658
12 12 100 18 0.420264
15 12 100 18 0.569078
10 13 100 18 2.3884e-05
13 13 100 18 0.499997
16 13 100 18 0.499979
13 14 100 18 2.02748e-05
14 14 100 18 0.499518
17 14 100 18 0.500462
14 15 100 18 0.00281803
15 15 100 18 0.499446
18 15 100 18 0.497736
16 16 100 18 1
17 17 100 18 1
18 18 100 18 1
1 0 100 20 1.14863e-05
2 0 100 20 2.07723e-05
3 0 100 20 5.44863e-05
4 0 100 20 5.96801e-05
5 0 100 20 0.000492656
6 0 100 20 0.333363
7 0 100 20 0.504122
8 0 100 20 0.158616
10 0 100 20 0.000112161
11 0 100 20 6.84933e-05
12 0 100 20 2.27961e-05
13 0 100 20 5.7674e-05
14 0 100 20 0.00181504
16 0 100 20 0.000354062
17 0 100 20 6.75036e-05
18 0 100 20 0.000445094
19 0 100 20 1.7476e-05
20 0 100 20 0.000299133
1 1 100 20 1
2 2 100 20 1
3 3 100 20 1
4 4 100 20 1
5 5 100 20 1
6 6 100 20 0.330709
7 6 100 20 0.000370697
8 6 100 20 0.66892
9 7 100 20 1
6 8 100 20 6.76186e-05
10 8 100 20 0.999932
11 9 100 20 1
7 10 100 20 3.27479e-05
12 10 100 20 0.999967
13 11 100 20 1
14 12 100 20 1
15 13 100 20 1
16 14 100 20 1
17 15 100 20 1
18 16 100 20 1
6 17 100 20 2.83527e-05
19 17 100 20 0.999972
20 18 100 20 1
