0 1 2 100 2.78866e-05
1 1 2 100 0.999972
0 2 2 100 2.74492e-05
2 2 2 100 0.999973
0 1 3 100 0.000104202
1 1 3 100 0.999896
0 2 3 100 0.00118681
2 2 3 100 0.571353
3 2 3 100 0.42746
0 3 3 100 0.370652
2 3 3 100 0.415287
3 3 3 100 0.214061
0 4 3 100 0.285995
3 4 3 100 0.714005
0 1 4 100 0.00429477
1 1 4 100 0.867889
2 1 4 100 0.12095
3 1 4 100 0.00668977
4 1 4 100 0.000176673
0 2 4 100 0.0645706
1 2 4 100 0.089362
2 2 4 100 0.501387
3 2 4 100 0.301561
4 2 4 100 0.0431199
0 3 4 100 0.0728741
1 3 4 100 1.62007e-05
2 3 4 100 0.282537
3 3 4 100 0.296951
4 3 4 100 0.347622
0 4 4 100 0.0869955
1 4 4 100 0.000383474
2 4 4 100 0.0443147
3 4 4 100 0.362027
4 4 4 100 0.506279
0 5 4 100 0.352733
1 5 4 100 8.97808e-06
2 5 4 100 5.84022e-05
3 5 4 100 0.0287185
4 5 4 100 0.618481
0 6 4 100 0.500676
4 6 4 100 0.499324
0 7 4 100 0.998614
2 7 4 100 0.0013861
0 1 5 100 0.00812234
1 1 5 100 0.932853
2 1 5 100 0.0557055
3 1 5 100 0.00323747
4 1 5 100 5.78635e-05
5 1 5 100 2.39047e-05
0 2 5 100 0.0664703
1 2 5 100 0.0496578
2 2 5 100 0.726556
3 2 5 100 0.151681
4 2 5 100 0.00164306
5 2 5 100 0.00399205
0 3 5 100 0.100455
1 3 5 100 0.00398671
2 3 5 100 0.162951
3 3 5 100 0.514413
4 3 5 100 0.205876
5 3 5 100 0.0123167
0 4 5 100 0.0794539
1 4 5 100 3.67501e-06
2 4 5 100 0.0113562
3 4 5 100 0.255501
4 4 5 100 0.388294
5 4 5 100 0.265391
0 5 5 100 0.126889
1 5 5 100 2.76628e-05
2 5 5 100 0.00449108
3 5 5 100 0.015747
4 5 5 100 0.408995
5 5 5 100 0.443851
0 6 5 100 0.0803414
1 6 5 100 9.92468e-07
2 6 5 100 1.05411e-05
3 6 5 100 7.14254e-07
4 6 5 100 0.0328329
5 6 5 100 0.886813
0 7 5 100 0.490731
3 7 5 100 6.00265e-05
5 7 5 100 0.509209
0 8 5 100 0.999445
4 8 5 100 0.000555069
0 1 6 100 0.00593307
1 1 6 100 0.978153
2 1 6 100 0.0130163
3 1 6 100 1.31062e-06
4 1 6 100 7.88165e-07
5 1 6 100 0.00288805
6 1 6 100 7.05021e-06
0 2 6 100 0.044527
1 2 6 100 0.0104183
2 2 6 100 0.872487
3 2 6 100 0.0694428
4 2 6 100 1.06777e-05
5 2 6 100 6.95934e-06
6 2 6 100 0.00310673
0 3 6 100 0.118901
1 3 6 100 4.02034e-06
2 3 6 100 0.0971208
3 3 6 100 0.655375
4 3 6 100 0.127093
5 3 6 100 0.00110467
6 3 6 100 0.000401927
0 4 6 100 0.131271
1 4 6 100 4.19733e-05
2 4 6 100 3.18872e-05
3 4 6 100 0.208489
4 4 6 100 0.475416
5 4 6 100 0.180582
6 4 6 100 0.0041673
0 5 6 100 0.096683
1 5 6 100 5.09451e-06
2 5 6 100 0.00180392
3 5 6 100 0.00386272
4 5 6 100 0.348216
5 5 6 100 0.364618
6 5 6 100 0.184812
0 6 6 100 0.0704218
1 6 6 100 2.30772e-06
2 6 6 100 4.97142e-06
3 6 6 100 2.83721e-05
4 6 6 100 0.00684202
5 6 6 100 0.465297
6 6 6 100 0.457403
0 7 6 100 0.12288
1 7 6 100 5.66386e-06
2 7 6 100 5.81552e-06
3 7 6 100 1.25583e-05
4 7 6 100 3.71092e-05
5 7 6 100 0.0157766
6 7 6 100 0.861282
0 8 6 100 0.200057
4 8 6 100 9.2649e-05
6 8 6 100 0.79985
0 1 7 100 0.0023385
1 1 7 100 0.994068
2 1 7 100 0.00165947
3 1 7 100 0.00191344
4 1 7 100 3.02709e-07
5 1 7 100 1.90286e-05
7 1 7 100 1.26626e-06
0 2 7 100 0.0329548
1 2 7 100 0.00353811
2 2 7 100 0.926645
3 2 7 100 0.034881
4 2 7 100 0.0019184
5 2 7 100 2.3511e-05
6 2 7 100 4.53461e-06
7 2 7 100 3.45889e-05
0 3 7 100 0.0940195
1 3 7 100 8.33213e-06
2 3 7 100 0.0676651
3 3 7 100 0.746952
4 3 7 100 0.0893647
5 3 7 100 0.00191279
6 3 7 100 1.71381e-05
7 3 7 100 6.0495e-05
0 4 7 100 0.124716
1 4 7 100 3.28688e-06
2 4 7 100 7.16802e-06
3 4 7 100 0.181415
4 4 7 100 0.552236
5 4 7 100 0.139395
6 4 7 100 0.00198561
7 4 7 100 0.000242571
0 5 7 100 0.136928
1 5 7 100 9.7208e-07
2 5 7 100 6.31245e-05
3 5 7 100 0.00102866
4 5 7 100 0.300719
5 5 7 100 0.421448
6 5 7 100 0.132668
7 5 7 100 0.00714455
0 6 7 100 0.0988198
1 6 7 100 3.04782e-06
2 6 7 100 4.24247e-06
3 6 7 100 3.95805e-06
4 6 7 100 0.00697834
5 6 7 100 0.392807
6 6 7 100 0.368222
7 6 7 100 0.133161
0 7 7 100 0.0621492
1 7 7 100 2.27813e-06
2 7 7 100 2.585e-06
3 7 7 100 7.63698e-06
4 7 7 100 0.00101699
5 7 7 100 0.00956291
6 7 7 100 0.509181
7 7 7 100 0.418077
0 8 7 100 0.0337175
1 8 7 100 4.60149e-07
2 8 7 100 1.47367e-06
3 8 7 100 3.37558e-06
4 8 7 100 1.85798e-06
5 8 7 100 9.76882e-07
6 8 7 100 0.0274337
7 8 7 100 0.938841
0 9 7 100 0.00549659
3 9 7 100 1.62553e-05
7 9 7 100 0.994487
0 1 8 100 0.00318613
1 1 8 100 0.995333
2 1 8 100 0.0014743
4 1 8 100 8.21665e-07
5 1 8 100 2.06777e-07
8 1 8 100 4.91162e-06
0 2 8 100 0.0317934
1 2 8 100 0.00302387
2 2 8 100 0.936414
3 2 8 100 0.028547
4 2 8 100 2.24039e-05
5 2 8 100 2.107e-06
6 2 8 100 4.61929e-06
7 2 8 100 1.46677e-07
8 2 8 100 0.000192637
0 3 8 100 0.0798271
1 3 8 100 9.08204e-07
2 3 8 100 0.0448727
3 3 8 100 0.788909
4 3 8 100 0.0841268
5 3 8 100 0.00200672
6 3 8 100 6.11428e-05
7 3 8 100 3.63642e-06
8 3 8 100 0.000192035
0 4 8 100 0.0924862
1 4 8 100 1.77622e-06
2 4 8 100 3.90633e-06
3 4 8 100 0.14374
4 4 8 100 0.618772
5 4 8 100 0.139752
6 4 8 100 0.00300566
7 4 8 100 0.00203763
8 4 8 100 0.000200295
0 5 8 100 0.114435
1 5 8 100 1.98298e-06
2 5 8 100 2.30309e-06
3 5 8 100 0.00381155
4 5 8 100 0.228391
5 5 8 100 0.505322
6 5 8 100 0.142538
7 5 8 100 0.00531969
8 5 8 100 0.000179001
0 6 8 100 0.107307
1 6 8 100 1.68966e-06
2 6 8 100 2.0913e-06
3 6 8 100 5.90784e-05
4 6 8 100 0.0105963
5 6 8 100 0.288956
6 6 8 100 0.43837
7 6 8 100 0.149912
8 6 8 100 0.00479624
0 7 8 100 0.0846558
1 7 8 100 1.6765e-06
2 7 8 100 6.35722e-07
3 7 8 100 2.74955e-06
4 7 8 100 0.00109222
5 7 8 100 0.0157096
6 7 8 100 0.35164
7 7 8 100 0.384971
8 7 8 100 0.161926
0 8 8 100 0.0460831
1 8 8 100 9.57068e-07
2 8 8 100 2.77545e-06
3 8 8 100 3.85671e-06
4 8 8 100 6.10832e-06
5 8 8 100 0.0012075
6 8 8 100 0.0336918
7 8 8 100 0.494657
8 8 8 100 0.424347
0 9 8 100 0.0319753
1 9 8 100 2.78421e-07
2 9 8 100 3.51308e-07
3 9 8 100 6.19113e-07
4 9 8 100 1.39704e-07
5 9 8 100 1.17161e-05
6 9 8 100 1.71745e-06
7 9 8 100 0.0823509
8 9 8 100 0.885659
0 10 8 100 0.0734833
1 10 8 100 2.14812e-06
3 10 8 100 2.91897e-06
7 10 8 100 0.0355894
8 10 8 100 0.890922
0 11 8 100 1.2113e-05
8 11 8 100 0.999988
0 1 9 100 0.00170821
1 1 9 100 0.994446
2 1 9 100 0.00243338
3 1 9 100 0.00135376
4 1 9 100 3.46555e-07
5 1 9 100 2.04235e-06
6 1 9 100 2.19926e-05
8 1 9 100 1.65642e-07
9 1 9 100 3.37436e-05
0 2 9 100 0.0220043
1 2 9 100 0.00106343
2 2 9 100 0.956605
3 2 9 100 0.0187034
4 2 9 100 0.00133418
5 2 9 100 5.86583e-05
6 2 9 100 0.000172001
7 2 9 100 3.14718e-07
8 2 9 100 4.70103e-05
9 2 9 100 1.19582e-05
0 3 9 100 0.0618308
2 3 9 100 0.0359275
3 3 9 100 0.827227
4 3 9 100 0.0721343
5 3 9 100 0.00244642
6 3 9 100 0.000300733
7 3 9 100 1.26078e-05
8 3 9 100 8.76465e-07
9 3 9 100 0.000119943
0 4 9 100 0.0576245
1 4 9 100 0.00133658
2 4 9 100 0.000964259
3 4 9 100 0.105642
4 4 9 100 0.698764
5 4 9 100 0.129733
6 4 9 100 0.00445866
7 4 9 100 6.11305e-05
8 4 9 100 0.000656873
9 4 9 100 0.000758661
0 5 9 100 0.0926699
1 5 9 100 1.46667e-06
2 5 9 100 0.00134135
3 5 9 100 0.00267447
4 5 9 100 0.161221
5 5 9 100 0.582568
6 5 9 100 0.151955
7 5 9 100 0.00679892
8 5 9 100 0.0006821
9 5 9 100 8.79198e-05
0 6 9 100 0.106017
1 6 9 100 6.86377e-07
2 6 9 100 1.85398e-06
3 6 9 100 0.00134751
4 6 9 100 0.00361886
5 6 9 100 0.215712
6 6 9 100 0.502327
7 6 9 100 0.161397
8 6 9 100 0.00810508
9 6 9 100 0.00147326
0 7 9 100 0.0826242
1 7 9 100 1.65411e-06
2 7 9 100 1.16227e-06
3 7 9 100 1.74321e-06
4 7 9 100 0.00135375
5 7 9 100 0.00578735
6 7 9 100 0.27946
7 7 9 100 0.439833
8 7 9 100 0.180425
9 7 9 100 0.0105121
0 8 9 100 0.0611071
2 8 9 100 1.36942e-06
3 8 9 100 2.56488e-06
4 8 9 100 2.80029e-06
5 8 9 100 0.00233643
6 8 9 100 0.0179508
7 8 9 100 0.335148
8 8 9 100 0.385399
9 8 9 100 0.198053
0 9 9 100 0.0371471
1 9 9 100 3.581e-07
2 9 9 100 3.46007e-07
3 9 9 100 8.84114e-07
4 9 9 100 9.13008e-06
5 9 9 100 5.34728e-06
6 9 9 100 0.00281549
7 9 9 100 0.0256772
8 9 9 100 0.485153
9 9 9 100 0.449192
0 10 9 100 0.0260497
1 10 9 100 5.34139e-07
2 10 9 100 6.26865e-07
3 10 9 100 2.71142e-07
4 10 9 100 1.00668e-06
5 10 9 100 4.52681e-07
6 10 9 100 1.37051e-07
7 10 9 100 0.00315433
8 10 9 100 0.0676431
9 10 9 100 0.90315
0 11 9 100 0.00373628
7 11 9 100 1.07215e-05
8 11 9 100 0.128853
9 11 9 100 0.8674
0 12 9 100 4.6562e-05
5 12 9 100 5.91018e-06
9 12 9 100 0.999948
0 1 10 100 0.000258471
1 1 10 100 0.995998
2 1 10 100 0.00224187
3 1 10 100 0.00150119
6 1 10 100 4.936e-07
0 2 10 100 0.0202389
1 2 10 100 1.76215e-06
2 2 10 100 0.953029
3 2 10 100 0.0251757
4 2 10 100 0.00149939
5 2 10 100 2.61791e-05
6 2 10 100 1.76793e-06
7 2 10 100 8.63342e-06
8 2 10 100 9.50364e-07
9 2 10 100 3.98869e-07
10 2 10 100 1.73657e-05
0 3 10 100 0.0516734
1 3 10 100 3.1741e-06
2 3 10 100 0.0382128
3 3 10 100 0.839339
4 3 10 100 0.067178
5 3 10 100 0.00346892
6 3 10 100 2.09692e-05
7 3 10 100 2.36931e-06
8 3 10 100 6.83954e-07
9 3 10 100 4.72236e-07
10 3 10 100 0.000100371
0 4 10 100 0.0412306
1 4 10 100 2.96583e-07
2 4 10 100 1.9036e-06
3 4 10 100 0.0865327
4 4 10 100 0.751765
5 4 10 100 0.115863
6 4 10 100 0.00456381
7 4 10 100 9.01152e-07
8 4 10 100 1.70532e-06
9 4 10 100 1.59067e-06
10 4 10 100 3.77297e-05
0 5 10 100 0.0807874
1 5 10 100 1.42681e-06
2 5 10 100 1.42267e-06
3 5 10 100 0.000105344
4 5 10 100 0.126791
5 5 10 100 0.650285
6 5 10 100 0.13329
7 5 10 100 0.00714239
8 5 10 100 1.06404e-06
9 5 10 100 1.00511e-05
10 5 10 100 0.00158576
0 6 10 100 0.0741083
1 6 10 100 1.0101e-06
2 6 10 100 5.35486e-07
3 6 10 100 1.88221e-06
4 6 10 100 0.000577907
5 6 10 100 0.190305
6 6 10 100 0.568235
7 6 10 100 0.155872
8 6 10 100 0.00947033
9 6 10 100 0.00135449
10 6 10 100 7.40476e-05
0 7 10 100 0.0926749
1 7 10 100 1.26792e-06
2 7 10 100 2.43073e-06
3 7 10 100 6.29798e-07
4 7 10 100 4.79226e-06
5 7 10 100 0.0023827
6 7 10 100 0.227453
7 7 10 100 0.480771
8 7 10 100 0.184705
9 7 10 100 0.00971462
10 7 10 100 0.00228941
0 8 10 100 0.0568953
1 8 10 100 6.89788e-07
2 8 10 100 5.35782e-07
3 8 10 100 9.80554e-07
4 8 10 100 9.36737e-07
5 8 10 100 0.000857495
6 8 10 100 0.00797981
7 8 10 100 0.295543
8 8 10 100 0.415614
9 8 10 100 0.208918
10 8 10 100 0.0141893
0 9 10 100 0.0451001
1 9 10 100 3.8274e-07
2 9 10 100 1.11914e-06
3 9 10 100 8.82464e-07
4 9 10 100 0.000648088
5 9 10 100 1.99285e-06
6 9 10 100 0.00153866
7 9 10 100 0.00941487
8 9 10 100 0.330864
9 9 10 100 0.390169
10 9 10 100 0.22226
0 10 10 100 0.0176197
3 10 10 100 1.5936e-06
4 10 10 100 9.59984e-07
5 10 10 100 0.00197413
6 10 10 100 9.70227e-07
7 10 10 100 0.00200045
8 10 10 100 0.0166565
9 10 10 100 0.469763
10 10 10 100 0.491982
0 11 10 100 0.0130067
2 11 10 100 2.63114e-07
4 11 10 100 4.03578e-07
6 11 10 100 0.0039526
7 11 10 100 1.17149e-07
8 11 10 100 0.00396997
9 11 10 100 0.060332
10 11 10 100 0.918738
0 12 10 100 0.0526097
7 12 10 100 0.0499972
9 12 10 100 0.0499848
10 12 10 100 0.847408
0 13 10 100 6.94216e-05
8 13 10 100 0.499956
10 13 10 100 0.499975
0 14 10 100 5.56472e-05
9 14 10 100 0.999944
0 15 10 100 0.000239403
10 15 10 100 0.999761
0 1 11 100 0.000162794
1 1 11 100 0.999835
10 1 11 100 1.42139e-06
11 1 11 100 6.70278e-07
0 2 11 100 0.0237236
2 2 11 100 0.966406
3 2 11 100 0.00860648
4 2 11 100 0.00121653
5 2 11 100 3.44977e-07
6 2 11 100 5.75634e-06
7 2 11 100 4.92344e-07
8 2 11 100 8.77957e-07
9 2 11 100 7.7887e-07
10 2 11 100 7.78717e-07
11 2 11 100 3.80282e-05
0 3 11 100 0.034762
2 3 11 100 0.0259091
3 3 11 100 0.87991
4 3 11 100 0.0542908
5 3 11 100 0.00504269
6 3 11 100 2.60398e-07
8 3 11 100 1.05701e-06
9 3 11 100 4.99128e-06
10 3 11 100 1.8515e-07
11 3 11 100 7.88715e-05
0 4 11 100 0.04366
1 4 11 100 3.15606e-07
2 4 11 100 0.00219747
3 4 11 100 0.0749441
4 4 11 100 0.789806
5 4 11 100 0.0850781
6 4 11 100 0.00430576
7 4 11 100 1.96187e-06
8 4 11 100 4.64343e-07
9 4 11 100 1.23498e-06
10 4 11 100 4.2564e-06
11 4 11 100 1.10179e-07
0 5 11 100 0.0769626
1 5 11 100 6.46004e-07
2 5 11 100 1.2018e-06
3 5 11 100 0.00453486
4 5 11 100 0.100262
5 5 11 100 0.701314
6 5 11 100 0.110136
7 5 11 100 0.00599561
8 5 11 100 0.000748483
9 5 11 100 6.4021e-06
10 5 11 100 9.04558e-07
11 5 11 100 3.71006e-05
0 6 11 100 0.0774552
1 6 11 100 1.81668e-07
2 6 11 100 8.71939e-07
3 6 11 100 6.23871e-07
4 6 11 100 0.00573576
5 6 11 100 0.15995
6 6 11 100 0.617248
7 6 11 100 0.125619
8 6 11 100 0.0125446
9 6 11 100 0.00143367
10 6 11 100 1.04866e-05
11 6 11 100 1.03172e-06
0 7 11 100 0.0761186
1 7 11 100 6.06478e-07
2 7 11 100 1.30646e-06
3 7 11 100 2.42689e-07
4 7 11 100 4.87156e-06
5 7 11 100 0.00550419
6 7 11 100 0.213353
7 7 11 100 0.50473
8 7 11 100 0.186684
9 7 11 100 0.00929512
10 7 11 100 0.00214832
11 7 11 100 0.00216066
0 8 11 100 0.0761706
1 8 11 100 5.6142e-07
2 8 11 100 1.13763e-06
3 8 11 100 8.7499e-07
4 8 11 100 1.67044e-06
5 8 11 100 6.86215e-06
6 8 11 100 0.0120016
7 8 11 100 0.261386
8 8 11 100 0.419804
9 8 11 100 0.218659
10 8 11 100 0.00975381
11 8 11 100 0.00221453
0 9 11 100 0.0378698
1 9 11 100 1.46701e-07
2 9 11 100 2.79354e-07
3 9 11 100 4.15854e-07
5 9 11 100 1.33794e-06
6 9 11 100 8.54705e-07
7 9 11 100 0.0196215
8 9 11 100 0.296283
9 9 11 100 0.397805
10 9 11 100 0.237182
11 9 11 100 0.0112356
0 10 11 100 0.036784
1 10 11 100 2.71691e-07
2 10 11 100 1.35637e-06
3 10 11 100 3.12327e-07
4 10 11 100 1.5507e-06
5 10 11 100 1.36235e-06
6 10 11 100 9.07181e-07
7 10 11 100 1.31994e-06
8 10 11 100 0.0247054
9 10 11 100 0.310213
10 10 11 100 0.385572
11 10 11 100 0.242718
0 11 11 100 0.00928926
3 11 11 100 3.73526e-07
8 11 11 100 3.15498e-06
9 11 11 100 0.0399246
10 11 11 100 0.459428
11 11 11 100 0.491355
0 12 11 100 0.00782034
3 12 11 100 1.44089e-07
5 12 11 100 1.85084e-07
6 12 11 100 6.08363e-07
7 12 11 100 8.79324e-07
9 12 11 100 1.21707e-05
10 12 11 100 0.0864994
11 12 11 100 0.905666
0 13 11 100 0.0634598
10 13 11 100 0.0620112
11 13 11 100 0.874529
0 14 11 100 2.83964e-05
11 14 11 100 0.999972
0 1 12 100 0.000460951
1 1 12 100 0.986718
2 1 12 100 0.00800325
3 1 12 100 0.00481601
10 1 12 100 1.51404e-06
0 2 12 100 0.0196545
1 2 12 100 0.000731679
2 2 12 100 0.966484
3 2 12 100 0.00663625
4 2 12 100 0.00642053
5 2 12 100 7.8131e-07
6 2 12 100 6.23134e-06
7 2 12 100 6.20397e-07
8 2 12 100 1.33215e-06
9 2 12 100 5.44777e-06
10 2 12 100 3.05686e-07
11 2 12 100 5.80277e-05
12 2 12 100 1.98258e-07
0 3 12 100 0.0138106
1 3 12 100 1.11527e-07
2 3 12 100 0.013214
3 3 12 100 0.921579
4 3 12 100 0.0417913
5 3 12 100 0.00959884
6 3 12 100 3.89328e-06
8 3 12 100 3.71865e-07
9 3 12 100 5.10853e-07
11 3 12 100 1.77491e-06
0 4 12 100 0.0331796
1 4 12 100 2.19217e-07
2 4 12 100 0.00317993
3 4 12 100 0.0331837
4 4 12 100 0.815061
5 4 12 100 0.102139
6 4 12 100 0.0101595
7 4 12 100 0.00299348
8 4 12 100 3.94437e-05
9 4 12 100 5.12645e-07
10 4 12 100 4.66223e-07
11 4 12 100 7.16794e-07
12 4 12 100 6.32232e-05
0 5 12 100 0.0565042
1 5 12 100 1.75734e-07
2 5 12 100 3.81903e-06
3 5 12 100 0.0051672
4 5 12 100 0.0589997
5 5 12 100 0.730396
6 5 12 100 0.131106
7 5 12 100 0.0145186
8 5 12 100 0.00320859
9 5 12 100 1.29152e-06
10 5 12 100 2.62144e-06
11 5 12 100 3.29997e-06
12 5 12 100 8.80813e-05
0 6 12 100 0.0394452
1 6 12 100 2.66248e-05
2 6 12 100 3.38856e-07
3 6 12 100 4.62106e-07
4 6 12 100 0.00958751
5 6 12 100 0.121353
6 6 12 100 0.64996
7 6 12 100 0.152733
8 6 12 100 0.023623
9 6 12 100 0.00320846
10 6 12 100 3.52671e-07
11 6 12 100 3.44709e-05
12 6 12 100 2.78707e-05
0 7 12 100 0.06509
2 7 12 100 2.40373e-06
4 7 12 100 1.57385e-06
5 7 12 100 0.00659266
6 7 12 100 0.147063
7 7 12 100 0.546004
8 7 12 100 0.194088
9 7 12 100 0.0370121
10 7 12 100 0.00341085
11 7 12 100 0.000709788
12 7 12 100 2.58623e-05
0 8 12 100 0.0591605
1 8 12 100 6.91646e-07
3 8 12 100 9.07597e-07
5 8 12 100 2.0186e-06
6 8 12 100 0.00970886
7 8 12 100 0.191259
8 8 12 100 0.460814
9 8 12 100 0.23488
10 8 12 100 0.0409015
11 8 12 100 0.00322735
12 8 12 100 4.53631e-05
0 9 12 100 0.0436139
2 9 12 100 6.92111e-07
4 9 12 100 1.63228e-06
5 9 12 100 9.79234e-07
6 9 12 100 5.09766e-07
7 9 12 100 0.00973513
8 9 12 100 0.227946
9 9 12 100 0.408631
10 9 12 100 0.256481
11 9 12 100 0.050296
12 9 12 100 0.00329317
0 10 12 100 0.0304711
2 10 12 100 4.20906e-07
4 10 12 100 3.60852e-07
5 10 12 100 7.64009e-07
6 10 12 100 6.77537e-07
7 10 12 100 3.33573e-06
8 10 12 100 0.00981534
9 10 12 100 0.248303
10 10 12 100 0.385061
11 10 12 100 0.272493
12 10 12 100 0.0538509
0 11 12 100 0.0366336
2 11 12 100 3.77229e-07
3 11 12 100 2.0098e-07
4 11 12 100 3.04385e-07
5 11 12 100 3.76641e-07
6 11 12 100 5.21984e-07
7 11 12 100 1.67636e-06
8 11 12 100 1.67979e-06
9 11 12 100 0.011511
10 11 12 100 0.276731
11 11 12 100 0.387744
12 11 12 100 0.287376
0 12 12 100 0.0128333
2 12 12 100 5.76662e-07
5 12 12 100 4.35653e-07
6 12 12 100 1.08523e-07
7 12 12 100 8.59865e-07
8 12 12 100 1.02604e-06
10 12 12 100 0.0241983
11 12 12 100 0.432678
12 12 12 100 0.530287
0 13 12 100 0.0121475
6 13 12 100 1.29488e-07
8 13 12 100 1.14731e-07
10 13 12 100 3.29015e-05
11 13 12 100 0.0624053
12 13 12 100 0.925414
0 14 12 100 0.000838149
12 14 12 100 0.999162
0 1 13 100 0.000123158
1 1 13 100 0.993816
2 1 13 100 0.00606011
7 1 13 100 4.01708e-07
0 2 13 100 0.0110468
2 2 13 100 0.97125
3 2 13 100 0.0176786
4 2 13 100 2.42621e-05
5 2 13 100 1.3285e-07
12 2 13 100 4.81435e-07
0 3 13 100 0.0162139
2 3 13 100 0.0106803
3 3 13 100 0.924158
4 3 13 100 0.0470949
5 3 13 100 0.00184833
6 3 13 100 1.76484e-07
9 3 13 100 1.04493e-06
11 3 13 100 3.72592e-06
0 4 13 100 0.015151
1 4 13 100 2.14732e-06
3 4 13 100 0.0209173
4 4 13 100 0.857959
5 4 13 100 0.0998495
6 4 13 100 0.00606905
7 4 13 100 2.35883e-05
8 4 13 100 2.35883e-05
9 4 13 100 1.66573e-06
10 4 13 100 2.65561e-07
11 4 13 100 6.28302e-07
12 4 13 100 2.04978e-06
0 5 13 100 0.0806773
1 5 13 100 2.30789e-07
2 5 13 100 5.02912e-06
3 5 13 100 9.29732e-07
4 5 13 100 0.0303459
5 5 13 100 0.739028
6 5 13 100 0.149374
7 5 13 100 0.000526337
8 5 13 100 1.55183e-06
10 5 13 100 7.91627e-07
11 5 13 100 5.15018e-07
13 5 13 100 3.9291e-05
0 6 13 100 0.0568996
3 6 13 100 1.15362e-06
4 6 13 100 2.39487e-06
5 6 13 100 0.122221
6 6 13 100 0.636549
7 6 13 100 0.181108
8 6 13 100 0.00314303
9 6 13 100 7.14422e-06
11 6 13 100 6.65497e-05
12 6 13 100 1.48131e-06
13 6 13 100 1.0823e-06
0 7 13 100 0.0447541
2 7 13 100 1.74542e-06
5 7 13 100 3.35461e-06
6 7 13 100 0.150081
7 7 13 100 0.593383
8 7 13 100 0.202077
9 7 13 100 0.00919835
10 7 13 100 2.17068e-05
11 7 13 100 0.000473082
12 7 13 100 7.16444e-06
0 8 13 100 0.0345038
4 8 13 100 1.19363e-06
5 8 13 100 1.23287e-06
6 8 13 100 0.0077553
7 8 13 100 0.170847
8 8 13 100 0.573624
9 8 13 100 0.198032
10 8 13 100 0.0152348
0 9 13 100 0.0705356
1 9 13 100 5.754e-07
2 9 13 100 2.4548e-07
3 9 13 100 9.17327e-07
4 9 13 100 6.42993e-07
5 9 13 100 7.44158e-07
7 9 13 100 0.0100697
8 9 13 100 0.164953
9 9 13 100 0.480018
10 9 13 100 0.253168
11 9 13 100 0.0152752
12 9 13 100 8.21846e-06
13 9 13 100 0.00596918
0 10 13 100 0.047109
5 10 13 100 6.45727e-07
6 10 13 100 1.57637e-06
7 10 13 100 2.15665e-07
8 10 13 100 0.0151434
9 10 13 100 0.209746
10 10 13 100 0.440224
11 10 13 100 0.269327
12 10 13 100 0.0184474
0 11 13 100 0.0148033
8 11 13 100 2.79617e-07
9 11 13 100 0.0202958
10 11 13 100 0.232926
11 11 13 100 0.420896
12 11 13 100 0.286679
13 11 13 100 0.0243998
0 12 13 100 0.0150085
7 12 13 100 8.08076e-07
8 12 13 100 7.56465e-07
9 12 13 100 3.42871e-06
10 12 13 100 0.0251808
11 12 13 100 0.246515
12 12 13 100 0.416578
13 12 13 100 0.296713
0 13 13 100 0.00228696
4 13 13 100 3.04177e-07
7 13 13 100 1.35649e-07
9 13 13 100 4.2418e-07
11 13 13 100 0.0364639
12 13 13 100 0.363197
13 13 13 100 0.598051
0 14 13 100 0.0246243
10 14 13 100 2.31821e-07
12 14 13 100 0.0908605
13 14 13 100 0.884515
0 15 13 100 0.00050725
12 15 13 100 5.02568e-05
13 15 13 100 0.999443
0 1 14 100 0.000116298
1 1 14 100 0.999872
8 1 14 100 5.75903e-06
14 1 14 100 5.75903e-06
0 2 14 100 0.0164963
2 2 14 100 0.983467
3 2 14 100 2.00927e-05
5 2 14 100 2.84595e-07
6 2 14 100 2.30392e-07
8 2 14 100 5.17391e-07
9 2 14 100 2.84849e-07
13 2 14 100 1.215e-05
14 2 14 100 2.94903e-06
0 3 14 100 0.0340923
2 3 14 100 0.0131761
3 3 14 100 0.947809
4 3 14 100 5.78215e-05
5 3 14 100 6.84295e-06
6 3 14 100 0.00484758
7 3 14 100 3.11164e-07
9 3 14 100 6.00907e-07
11 3 14 100 1.19985e-06
12 3 14 100 8.52835e-06
13 3 14 100 2.16133e-07
0 4 14 100 0.0121618
3 4 14 100 0.0473638
4 4 14 100 0.91587
5 4 14 100 0.014733
6 4 14 100 1.91476e-07
7 4 14 100 0.00985796
9 4 14 100 1.31791e-05
0 5 14 100 0.0329711
4 5 14 100 0.0588078
5 5 14 100 0.769029
6 5 14 100 0.12442
7 5 14 100 9.2556e-06
8 5 14 100 0.0147255
10 5 14 100 1.22707e-06
14 5 14 100 3.61908e-05
0 6 14 100 0.0625972
3 6 14 100 8.38519e-07
5 6 14 100 0.101823
6 6 14 100 0.615962
7 6 14 100 0.175682
8 6 14 100 0.0217668
9 6 14 100 0.0147448
10 6 14 100 0.00729101
11 6 14 100 6.05923e-07
12 6 14 100 9.82393e-07
13 6 14 100 7.75712e-06
14 6 14 100 0.000122738
0 7 14 100 0.0516341
2 7 14 100 1.89745e-06
5 7 14 100 1.85756e-06
6 7 14 100 0.134028
7 7 14 100 0.555579
8 7 14 100 0.208834
9 7 14 100 0.0299791
10 7 14 100 0.0197943
14 7 14 100 0.000147699
0 8 14 100 0.0339134
6 8 14 100 4.43967e-07
7 8 14 100 0.197874
8 8 14 100 0.47506
9 8 14 100 0.238423
10 8 14 100 0.0298473
11 8 14 100 0.0149258
12 8 14 100 0.00995516
13 8 14 100 1.18987e-06
0 9 14 100 0.0327876
7 9 14 100 7.37376e-06
8 9 14 100 0.208574
9 9 14 100 0.363504
10 9 14 100 0.335447
11 9 14 100 0.0298482
12 9 14 100 0.0149177
13 9 14 100 0.0149139
0 10 14 100 0.000821412
8 10 14 100 2.04784e-07
9 10 14 100 0.208893
10 10 14 100 0.363106
11 10 14 100 0.352586
12 10 14 100 0.0447618
13 10 14 100 0.0149196
14 10 14 100 0.0149121
0 11 14 100 0.080584
1 11 14 100 2.12698e-06
4 11 14 100 2.47471e-06
6 11 14 100 1.92905e-06
8 11 14 100 1.39637e-06
9 11 14 100 9.05444e-06
10 11 14 100 0.212
11 11 14 100 0.269154
12 11 14 100 0.377387
13 11 14 100 0.0454277
14 11 14 100 0.0154295
0 12 14 100 0.0341884
4 12 14 100 7.07088e-07
6 12 14 100 1.14654e-06
8 12 14 100 1.17306e-06
9 12 14 100 8.26458e-07
11 12 14 100 0.292378
12 12 14 100 0.258514
13 12 14 100 0.3689
14 12 14 100 0.0460154
0 13 14 100 0.0484135
2 13 14 100 1.10851e-06
8 13 14 100 1.17762e-06
9 13 14 100 8.50128e-07
10 13 14 100 6.06106e-07
12 13 14 100 0.307584
13 13 14 100 0.242031
14 13 14 100 0.401968
0 14 14 100 0.00254147
9 14 14 100 3.47823e-06
12 14 14 100 0.0269431
13 14 14 100 0.540126
14 14 14 100 0.430386
0 15 14 100 0.00315515
13 15 14 100 0.0476269
14 15 14 100 0.949218
0 16 14 100 0.00389494
14 16 14 100 0.996105
0 1 15 100 0.000220833
1 1 15 100 0.999779
0 2 15 100 0.000486519
2 2 15 100 0.999494
3 2 15 100 1.91568e-05
0 3 15 100 0.000546583
2 3 15 100 1.91568e-05
3 3 15 100 0.981714
4 3 15 100 0.01772
10 3 15 100 4.94776e-07
0 4 15 100 0.016863
3 4 15 100 0.000126543
4 4 15 100 0.911641
5 4 15 100 0.0713697
0 5 15 100 0.124623
1 5 15 100 1.43617e-06
4 5 15 100 0.000198378
5 5 15 100 0.741031
6 5 15 100 0.133803
7 5 15 100 0.000341312
12 5 15 100 1.50847e-06
0 6 15 100 0.0720213
4 6 15 100 0.0107339
5 6 15 100 0.0963176
6 6 15 100 0.714159
7 6 15 100 0.106768
15 6 15 100 4.33681e-07
0 7 15 100 0.0886543
2 7 15 100 2.22084e-06
3 7 15 100 2.65933e-06
5 7 15 100 0.035659
6 7 15 100 0.107031
7 7 15 100 0.625566
8 7 15 100 0.14278
9 7 15 100 2.21085e-06
11 7 15 100 8.26649e-06
15 7 15 100 0.000294066
0 8 15 100 0.00103938
6 8 15 100 0.0356911
7 8 15 100 0.142751
8 8 15 100 0.677716
9 8 15 100 0.142802
0 9 15 100 0.00931988
7 9 15 100 0.0356867
8 9 15 100 0.142746
9 9 15 100 0.669501
10 9 15 100 0.107038
11 9 15 100 0.0357074
0 10 15 100 0.102743
2 10 15 100 2.52934e-06
7 10 15 100 0.00580142
8 10 15 100 0.0357216
9 10 15 100 0.142803
10 10 15 100 0.569483
11 10 15 100 0.142784
12 10 15 100 0.000656204
13 10 15 100 4.52231e-06
0 11 15 100 0.0414115
6 11 15 100 8.52025e-07
9 11 15 100 0.0357117
10 11 15 100 0.214201
11 11 15 100 0.495348
12 11 15 100 0.177614
13 11 15 100 0.0177115
14 11 15 100 0.0180002
0 12 15 100 0.0356564
3 12 15 100 1.39727e-06
4 12 15 100 6.40563e-07
7 12 15 100 9.31971e-05
10 12 15 100 0.0368025
11 12 15 100 0.213971
12 12 15 100 0.499237
13 12 15 100 0.178526
15 12 15 100 0.0357113
0 13 15 100 0.112365
2 13 15 100 2.52353e-06
4 13 15 100 2.89728e-06
6 13 15 100 1.61995e-06
8 13 15 100 5.048e-06
9 13 15 100 2.51083e-06
11 13 15 100 0.0370382
12 13 15 100 0.222093
13 13 15 100 0.443639
14 13 15 100 0.18485
0 14 15 100 0.0757316
5 14 15 100 3.92053e-06
8 14 15 100 4.64879e-06
10 14 15 100 2.97415e-06
11 14 15 100 3.91849e-06
12 14 15 100 0.0369382
13 14 15 100 0.296013
14 14 15 100 0.407087
15 14 15 100 0.184215
0 15 15 100 0.00265156
12 15 15 100 0.0445934
13 15 15 100 0.0454546
14 15 15 100 0.408306
15 15 15 100 0.498995
0 16 15 100 0.00227064
13 16 15 100 0.0909042
14 16 15 100 0.0906809
15 16 15 100 0.816144
0 17 15 100 0.000121461
14 17 15 100 0.499962
15 17 15 100 0.499916
0 18 15 100 0.00584586
15 18 15 100 0.994154
0 1 16 100 0.000519366
1 1 16 100 0.916261
2 1 16 100 0.000150511
11 1 16 100 0.0830689
0 2 16 100 0.000457644
1 2 16 100 2.46085e-06
2 2 16 100 0.915927
3 2 16 100 0.000258989
4 2 16 100 2.79821e-05
12 2 16 100 0.0546441
14 2 16 100 0.0286816
0 3 16 100 0.0265881
2 3 16 100 0.000259914
3 3 16 100 0.91499
4 3 16 100 9.50736e-06
5 3 16 100 0.00029808
15 3 16 100 0.057853
16 3 16 100 1.29325e-06
0 4 16 100 0.00153245
3 4 16 100 0.0832866
4 4 16 100 0.750239
5 4 16 100 0.122178
6 4 16 100 0.0427635
9 4 16 100 1.00174e-06
0 5 16 100 0.0236919
1 5 16 100 3.85509e-06
4 5 16 100 0.0833143
5 5 16 100 0.499915
6 5 16 100 0.310321
7 5 16 100 0.0827542
0 6 16 100 0.0268594
2 6 16 100 3.84476e-05
5 6 16 100 0.140219
6 6 16 100 0.499898
7 6 16 100 0.249714
8 6 16 100 0.0832697
0 7 16 100 0.00117535
5 7 16 100 1.10769e-06
6 7 16 100 0.0833333
7 7 16 100 0.499329
8 7 16 100 0.332847
9 7 16 100 0.0833142
0 8 16 100 0.000730322
7 8 16 100 0.0833253
8 8 16 100 0.499857
9 8 16 100 0.332838
10 8 16 100 0.0832499
0 9 16 100 0.0214188
8 9 16 100 0.0832987
9 9 16 100 0.395805
10 9 16 100 0.416193
11 9 16 100 0.0832843
0 10 16 100 0.00221952
9 10 16 100 0.165372
10 10 16 100 0.333289
11 10 16 100 0.415808
12 10 16 100 0.0833112
0 11 16 100 0.182227
1 11 16 100 9.74019e-06
9 11 16 100 3.82242e-05
10 11 16 100 0.0908502
11 11 16 100 0.181773
12 11 16 100 0.454208
13 11 16 100 0.0908824
14 11 16 100 1.18601e-05
0 12 16 100 0.00158334
4 12 16 100 4.8261e-06
11 12 16 100 0.272614
12 12 16 100 0.181629
13 12 16 100 0.454081
14 12 16 100 0.0900867
0 13 16 100 0.0926513
4 13 16 100 6.2545e-06
8 13 16 100 5.43641e-06
9 13 16 100 5.42008e-06
12 13 16 100 0.272307
13 13 16 100 0.0908956
14 13 16 100 0.452795
15 13 16 100 0.0913338
0 14 16 100 0.00194627
12 14 16 100 1.00946e-05
13 14 16 100 0.362994
14 14 16 100 0.0911067
15 14 16 100 0.453631
16 14 16 100 0.0903117
0 15 16 100 0.000407575
14 15 16 100 0.399734
15 15 16 100 0.0999779
16 15 16 100 0.499881
0 16 16 100 0.000689653
15 16 16 100 0.799649
16 16 16 100 0.199661
0 17 16 100 0.00324038
16 17 16 100 0.99676
0 1 17 100 0.000422968
1 1 17 100 0.999577
0 2 17 100 0.000194976
2 2 17 100 0.999805
0 3 17 100 0.000359608
3 3 17 100 0.99964
0 4 17 100 0.000711494
4 4 17 100 0.999288
0 5 17 100 1.3737e-05
5 5 17 100 0.999986
6 6 17 100 1
0 7 17 100 0.000608074
7 7 17 100 0.999392
0 8 17 100 0.000529662
8 8 17 100 0.99947
0 9 17 100 0.265334
9 9 17 100 0.734666
0 10 17 100 1.61451e-05
10 10 17 100 0.999984
0 11 17 100 0.00189385
11 11 17 100 0.998106
0 12 17 100 0.00234026
12 12 17 100 0.99766
0 13 17 100 0.0045406
13 13 17 100 0.995459
0 14 17 100 0.0026088
14 14 17 100 0.997391
0 15 17 100 0.000915921
15 15 17 100 0.999084
0 16 17 100 0.000693957
16 16 17 100 0.999306
0 17 17 100 0.00484109
17 17 17 100 0.995159
0 1 18 100 3.54028e-05
1 1 18 100 0.999965
0 2 18 100 0.00501781
2 2 18 100 0.994982
0 3 18 100 0.000267068
3 3 18 100 0.999733
0 4 18 100 0.000415181
4 4 18 100 0.999585
0 5 18 100 0.000730409
5 5 18 100 0.99927
0 6 18 100 0.330512
6 6 18 100 0.66944
8 6 18 100 3.38041e-05
17 6 18 100 1.41763e-05
0 7 18 100 0.500163
6 7 18 100 0.00018994
7 7 18 100 0.499631
10 7 18 100 1.63738e-05
0 8 18 100 0.157261
6 8 18 100 0.342746
8 8 18 100 0.499993
7 9 18 100 0.500001
9 9 18 100 0.499999
0 10 18 100 0.000426544
8 10 18 100 0.499888
10 10 18 100 0.499685
0 11 18 100 0.000342368
9 11 18 100 0.499932
11 11 18 100 0.499726
0 12 18 100 0.137833
10 12 18 100 0.499977
12 12 18 100 0.362189
0 13 18 100 6.55451e-05
11 13 18 100 0.499943
13 13 18 100 0.499992
0 14 18 100 0.00278009
12 14 18 100 0.498201
14 14 18 100 0.499019
0 15 18 100 0.00121537
13 15 18 100 0.5
15 15 18 100 0.498785
0 16 18 100 0.00270737
14 16 18 100 0.499649
16 16 18 100 0.497644
0 17 18 100 0.00192073
15 17 18 100 0.499933
17 17 18 100 0.498146
0 18 18 100 0.000533031
16 18 18 100 0.499559
18 18 18 100 0.499908
0 19 18 100 3.46519e-05
17 19 18 100 0.999965
0 20 18 100 0.000593128
18 20 18 100 0.999407
0 1 19 100 7.49842e-06
1 1 19 100 0.999992
0 2 19 100 0.00345276
2 2 19 100 0.996534
10 2 19 100 1.34578e-05
0 3 19 100 0.000189124
3 3 19 100 0.999668
4 3 19 100 0.000136845
13 3 19 100 6.41901e-06
0 4 19 100 0.000147608
3 4 19 100 0.000136845
4 4 19 100 0.99971
17 4 19 100 5.63854e-06
0 5 19 100 0.00100891
5 5 19 100 0.998991
0 6 19 100 9.58185e-05
6 6 19 100 0.999904
0 7 19 100 0.00102887
7 7 19 100 0.998971
0 8 19 100 7.83457e-05
8 8 19 100 0.999922
0 9 19 100 0.000112392
9 9 19 100 0.838975
12 9 19 100 0.160912
0 10 19 100 0.0017559
10 10 19 100 0.659659
11 10 19 100 0.00899101
13 10 19 100 0.329594
0 11 19 100 0.000121139
11 11 19 100 0.499477
14 11 19 100 0.499876
17 11 19 100 0.000525416
0 12 19 100 0.00015857
12 12 19 100 0.336011
14 12 19 100 0.163943
15 12 19 100 0.499887
0 13 19 100 0.000945781
13 13 19 100 0.163943
15 13 19 100 0.001176
16 13 19 100 0.502772
18 13 19 100 0.331163
0 14 19 100 0.000587232
17 14 19 100 0.499994
19 14 19 100 0.499418
0 15 19 100 0.00024487
18 15 19 100 0.999755
0 16 19 100 0.00212057
19 16 19 100 0.997879
